1.263408950501542524e-15
1.263408950501542524e-15
1.263408950501542524e-15
1.263408950501542524e-15
1.263408950501542524e-15
1.263408950501542524e-15
1.263408950501542524e-15
1.263408950501542524e-15
2.919515256376835644e-16
2.919515256376835644e-16
-7.328083236714142412e-01
-7.328083236714142412e-01
2.919515256376835644e-16
2.919515256376835644e-16
-7.328083236714142412e-01
-7.328083236714142412e-01
-2.353950588655606100e-15
-2.353950588655606100e-15
-2.353950588655606100e-15
-2.353950588655606100e-15
-2.353950588655606100e-15
-2.353950588655606100e-15
-2.353950588655606100e-15
-2.353950588655606100e-15
3.976613298574966597e-17
3.976613298574966597e-17
-7.328083236714113546e-01
-7.328083236714113546e-01
3.976613298574966597e-17
3.976613298574966597e-17
-7.328083236714113546e-01
-7.328083236714113546e-01
5.023589711127752101e-16
5.023589711127752101e-16
-7.328083236714251214e-01
-7.328083236714251214e-01
2.898000075569326373e-01
2.898000075569326373e-01
2.898000075569326373e-01
2.898000075569326373e-01
1.297360975297721494e-15
1.297360975297721494e-15
1.297360975297721494e-15
1.297360975297721494e-15
2.898000075569326373e-01
2.898000075569326373e-01
2.898000075569326373e-01
2.898000075569326373e-01
-1.960173979871332184e-15
-1.960173979871332184e-15
-1.960173979871332184e-15
-1.960173979871332184e-15
1.743525564036413622e-01
1.743525564036413622e-01
1.743525564036413622e-01
1.743525564036413622e-01
-2.030125597258417382e-15
-2.030125597258417382e-15
-2.030125597258417382e-15
-2.030125597258417382e-15
3.175866530735024229e-01
3.175866530735024229e-01
3.175866530735024229e-01
3.175866530735024229e-01
-2.840178179747671270e-15
-2.840178179747671270e-15
-2.840178179747671270e-15
-2.840178179747671270e-15
0.000000000000000000e+00
0.000000000000000000e+00
0.000000000000000000e+00
0.000000000000000000e+00
-4.641918452810917085e-15
-4.641918452810917085e-15
-4.641918452810917085e-15
-4.641918452810917085e-15
7.419532538653826614e-02
7.419532538653826614e-02
7.419532538653826614e-02
7.419532538653826614e-02
-1.306508896133538695e-15
-1.306508896133538695e-15
-1.306508896133538695e-15
-1.306508896133538695e-15
5.974933184871209467e-03
5.974933184871209467e-03
5.974933184871209467e-03
5.974933184871209467e-03
-2.677685943279682382e-15
-2.677685943279682382e-15
-7.328083236714221238e-01
-7.328083236714221238e-01
2.898000075569326373e-01
2.898000075569326373e-01
2.898000075569326373e-01
2.898000075569326373e-01
2.523696328403639181e-17
2.523696328403639181e-17
-7.328083236714193482e-01
-7.328083236714193482e-01
1.743525564036413622e-01
1.743525564036413622e-01
1.743525564036413622e-01
1.743525564036413622e-01
1.302763005570083688e-15
1.302763005570083688e-15
-7.328083236714096893e-01
-7.328083236714096893e-01
3.175866530735024229e-01
3.175866530735024229e-01
3.175866530735024229e-01
3.175866530735024229e-01
-2.042816887403090903e-15
-2.042816887403090903e-15
-7.328083236714183490e-01
-7.328083236714183490e-01
0.000000000000000000e+00
0.000000000000000000e+00
0.000000000000000000e+00
0.000000000000000000e+00
-9.084083236861973338e-16
-9.084083236861973338e-16
-7.328083236714095783e-01
-7.328083236714095783e-01
7.419532538653826614e-02
7.419532538653826614e-02
7.419532538653826614e-02
7.419532538653826614e-02
3.105273277668175970e-17
3.105273277668175970e-17
-7.328083236714224569e-01
-7.328083236714224569e-01
5.974933184871209467e-03
5.974933184871209467e-03
5.974933184871209467e-03
5.974933184871209467e-03
-4.082264460544830118e-15
-4.082264460544830118e-15
-4.082264460544830118e-15
-4.082264460544830118e-15
1.743525564036413622e-01
1.743525564036413622e-01
1.743525564036413622e-01
1.743525564036413622e-01
-3.661846371514924534e-15
-3.661846371514924534e-15
-3.661846371514924534e-15
-3.661846371514924534e-15
3.175866530735024229e-01
3.175866530735024229e-01
3.175866530735024229e-01
3.175866530735024229e-01
-2.011731301219550379e-15
-2.011731301219550379e-15
-2.011731301219550379e-15
-2.011731301219550379e-15
0.000000000000000000e+00
0.000000000000000000e+00
0.000000000000000000e+00
0.000000000000000000e+00
-5.322520291268525120e-16
-5.322520291268525120e-16
-5.322520291268525120e-16
-5.322520291268525120e-16
7.419532538653826614e-02
7.419532538653826614e-02
7.419532538653826614e-02
7.419532538653826614e-02
8.536847275429825029e-16
8.536847275429825029e-16
8.536847275429825029e-16
8.536847275429825029e-16
5.974933184871209467e-03
5.974933184871209467e-03
5.974933184871209467e-03
5.974933184871209467e-03
